{"type":"NeuralNetwork","sizes":[4,5,5,1],"layers":[{"weights":[],"biases":[]},{"weights":[[0.43894729018211365,2.2958736419677734,-2.4551398754119873,4.216714382171631],[-0.8135886788368225,-0.3061961233615875,-0.7911298871040344,-1.1017323732376099],[-0.8848048448562622,-0.41784071922302246,-0.8423671722412109,-1.0806443691253662],[-3.5613629817962646,-0.8417658805847168,-3.2889463901519775,-1.751239538192749],[-0.15190644562244415,0.3902423679828644,-0.16676439344882965,0.554448664188385]],"biases":[-4.193246364593506,-0.1910267323255539,-0.22280775010585785,0.7436680793762207,-0.534346878528595]},{"weights":[[-0.999350905418396,-0.012937665916979313,0.09022891521453857,0.09217492491006851,-0.20957514643669128],[-3.4553186893463135,0.5768605470657349,0.49080049991607666,2.5901665687561035,-0.4319153130054474],[-2.9610185623168945,0.43889981508255005,0.5554174780845642,2.304346799850464,-0.5916301012039185],[-1.9117759466171265,0.41466882824897766,0.4823600649833679,1.092795729637146,-0.6166006326675415],[-5.179579734802246,0.8958975672721863,1.0389806032180786,2.3874576091766357,0.5630202889442444]],"biases":[-0.5293850898742676,-0.3420383632183075,-0.3569994270801544,-0.49299493432044983,1.4954575300216675]},{"weights":[[0.10412026941776276,-4.179116725921631,-3.208098888397217,-1.322677731513977,-6.0403852462768555]],"biases":[7.566978931427002]}],"inputLookup":null,"inputLookupLength":0,"outputLookup":null,"outputLookupLength":0,"options":{"inputSize":0,"outputSize":0,"binaryThresh":0.5,"hiddenLayers":[5,5]},"trainOpts":{"activation":"sigmoid","iterations":100000,"errorThresh":0.00005,"log":true,"logPeriod":100,"leakyReluAlpha":0.01,"learningRate":0.3,"momentum":0.1,"callbackPeriod":10,"timeout":"Infinity","beta1":0.9,"beta2":0.999,"epsilon":1e-8}}